digraph Tree {
node [shape=box, style="filled, rounded", color="black", fontname="helvetica"] ;
edge [fontname="helvetica"] ;
0 [label=<kurtosis mean &le; 0.284<br/>gini = 0.918<br/>samples = 39<br/>value = [1, 1, 1, 1, 7, 2, 4, 1, 1, 1, 1, 2, 4, 1<br/>2, 1, 1, 4, 2, 1]<br/>class = PLAYGROUND_UNIFORM>, fillcolor="#f4fdee"] ;
1 [label=<number of examples &le; 3.608<br/>gini = 0.905<br/>samples = 20<br/>value = [0, 1, 1, 1, 0, 2, 4, 1, 1, 0, 0, 1, 1, 1<br/>0, 1, 1, 2, 2, 0]<br/>class = LIBACT_DWUS>, fillcolor="#e9fced"] ;
0 -> 1 [labeldistance=2.5, labelangle=45, headlabel="True"] ;
2 [label=<feature dummy 3 &le; 4.325<br/>gini = 0.883<br/>samples = 16<br/>value = [0, 1, 1, 1, 0, 2, 4, 1, 1, 0, 0, 1, 1, 1<br/>0, 0, 1, 1, 0, 0]<br/>class = LIBACT_DWUS>, fillcolor="#e3fbe8"] ;
1 -> 2 ;
3 [label=<feature dummy 1 &le; 4.0<br/>gini = 0.75<br/>samples = 4<br/>value = [0, 1, 0, 1, 0, 0, 0, 0, 1, 0, 0, 0, 0, 0<br/>0, 0, 0, 1, 0, 0]<br/>class = LIBACT_UNCERTAINTY_SM>, fillcolor="#ffffff"] ;
2 -> 3 ;
4 [label=<number of positive covariance &le; 0.87<br/>gini = 0.5<br/>samples = 2<br/>value = [0, 0, 0, 1, 0, 0, 0, 0, 1, 0, 0, 0, 0, 0<br/>0, 0, 0, 0, 0, 0]<br/>class = SMALLTEXT_LIGHTWEIGHTCORESET>, fillcolor="#ffffff"] ;
3 -> 4 ;
5 [label=<gini = 0.0<br/>samples = 1<br/>value = [0, 0, 0, 0, 0, 0, 0, 0, 1, 0, 0, 0, 0, 0<br/>0, 0, 0, 0, 0, 0]<br/>class = LIBACT_EER>, fillcolor="#39e5c5"] ;
4 -> 5 ;
6 [label=<gini = 0.0<br/>samples = 1<br/>value = [0, 0, 0, 1, 0, 0, 0, 0, 0, 0, 0, 0, 0, 0<br/>0, 0, 0, 0, 0, 0]<br/>class = SMALLTEXT_LIGHTWEIGHTCORESET>, fillcolor="#aee539"] ;
4 -> 6 ;
7 [label=<overall mean &le; 0.54<br/>gini = 0.5<br/>samples = 2<br/>value = [0, 1, 0, 0, 0, 0, 0, 0, 0, 0, 0, 0, 0, 0<br/>0, 0, 0, 1, 0, 0]<br/>class = LIBACT_UNCERTAINTY_SM>, fillcolor="#ffffff"] ;
3 -> 7 ;
8 [label=<gini = 0.0<br/>samples = 1<br/>value = [0, 0, 0, 0, 0, 0, 0, 0, 0, 0, 0, 0, 0, 0<br/>0, 0, 0, 1, 0, 0]<br/>class = PLAYGROUND_HIERARCHICAL_CLUSTER>, fillcolor="#e5398c"] ;
7 -> 8 ;
9 [label=<gini = 0.0<br/>samples = 1<br/>value = [0, 1, 0, 0, 0, 0, 0, 0, 0, 0, 0, 0, 0, 0<br/>0, 0, 0, 0, 0, 0]<br/>class = LIBACT_UNCERTAINTY_SM>, fillcolor="#e5b439"] ;
7 -> 9 ;
10 [label=<number of positive covariance &le; 0.874<br/>gini = 0.819<br/>samples = 12<br/>value = [0, 0, 1, 0, 0, 2, 4, 1, 0, 0, 0, 1, 1, 1<br/>0, 0, 1, 0, 0, 0]<br/>class = LIBACT_DWUS>, fillcolor="#d7fadf"] ;
2 -> 10 ;
11 [label=<number of examples &le; 2.611<br/>gini = 0.375<br/>samples = 4<br/>value = [0, 0, 0, 0, 0, 0, 3, 0, 0, 0, 0, 0, 1, 0<br/>0, 0, 0, 0, 0, 0]<br/>class = LIBACT_DWUS>, fillcolor="#7bee94"] ;
10 -> 11 ;
12 [label=<gini = 0.0<br/>samples = 1<br/>value = [0, 0, 0, 0, 0, 0, 0, 0, 0, 0, 0, 0, 1, 0<br/>0, 0, 0, 0, 0, 0]<br/>class = SKACTIVEML_DWUS>, fillcolor="#3c39e5"] ;
11 -> 12 ;
13 [label=<gini = 0.0<br/>samples = 3<br/>value = [0, 0, 0, 0, 0, 0, 3, 0, 0, 0, 0, 0, 0, 0<br/>0, 0, 0, 0, 0, 0]<br/>class = LIBACT_DWUS>, fillcolor="#39e55e"] ;
11 -> 13 ;
14 [label=<number of positive covariance &le; 0.903<br/>gini = 0.844<br/>samples = 8<br/>value = [0, 0, 1, 0, 0, 2, 1, 1, 0, 0, 0, 1, 0, 1<br/>0, 0, 1, 0, 0, 0]<br/>class = LIBACT_DWUS>, fillcolor="#e5fbe3"] ;
10 -> 14 ;
15 [label=<kurtosis mean &le; 0.005<br/>gini = 0.625<br/>samples = 4<br/>value = [0, 0, 0, 0, 0, 2, 0, 0, 0, 0, 0, 1, 0, 0<br/>0, 0, 1, 0, 0, 0]<br/>class = LIBACT_DWUS>, fillcolor="#c2f6bd"] ;
14 -> 15 ;
16 [label=<coefficient variation mean &le; 0.745<br/>gini = 0.5<br/>samples = 2<br/>value = [0, 0, 0, 0, 0, 0, 0, 0, 0, 0, 0, 1, 0, 0<br/>0, 0, 1, 0, 0, 0]<br/>class = SMALLTEXT_EMBEDDINGKMEANS>, fillcolor="#ffffff"] ;
15 -> 16 ;
17 [label=<gini = 0.0<br/>samples = 1<br/>value = [0, 0, 0, 0, 0, 0, 0, 0, 0, 0, 0, 1, 0, 0<br/>0, 0, 0, 0, 0, 0]<br/>class = SMALLTEXT_EMBEDDINGKMEANS>, fillcolor="#396ae5"] ;
16 -> 17 ;
18 [label=<gini = 0.0<br/>samples = 1<br/>value = [0, 0, 0, 0, 0, 0, 0, 0, 0, 0, 0, 0, 0, 0<br/>0, 0, 1, 0, 0, 0]<br/>class = SMALLTEXT_EMBEDDINGKMEANS>, fillcolor="#e539c0"] ;
16 -> 18 ;
19 [label=<gini = 0.0<br/>samples = 2<br/>value = [0, 0, 0, 0, 0, 2, 0, 0, 0, 0, 0, 0, 0, 0<br/>0, 0, 0, 0, 0, 0]<br/>class = LIBACT_DWUS>, fillcolor="#47e539"] ;
15 -> 19 ;
20 [label=<number of features &le; 0.573<br/>gini = 0.75<br/>samples = 4<br/>value = [0, 0, 1, 0, 0, 0, 1, 1, 0, 0, 0, 0, 0, 1<br/>0, 0, 0, 0, 0, 0]<br/>class = SMALLTEXT_GREEDYCORESET>, fillcolor="#ffffff"] ;
14 -> 20 ;
21 [label=<overall mean &le; 0.489<br/>gini = 0.667<br/>samples = 3<br/>value = [0, 0, 1, 0, 0, 0, 1, 0, 0, 0, 0, 0, 0, 1<br/>0, 0, 0, 0, 0, 0]<br/>class = SMALLTEXT_GREEDYCORESET>, fillcolor="#ffffff"] ;
20 -> 21 ;
22 [label=<gini = 0.0<br/>samples = 1<br/>value = [0, 0, 0, 0, 0, 0, 0, 0, 0, 0, 0, 0, 0, 1<br/>0, 0, 0, 0, 0, 0]<br/>class = SKACTIVEML_DWUS>, fillcolor="#6f39e5"] ;
21 -> 22 ;
23 [label=<quantile mean &le; 0.031<br/>gini = 0.5<br/>samples = 2<br/>value = [0, 0, 1, 0, 0, 0, 1, 0, 0, 0, 0, 0, 0, 0<br/>0, 0, 0, 0, 0, 0]<br/>class = SMALLTEXT_GREEDYCORESET>, fillcolor="#ffffff"] ;
21 -> 23 ;
24 [label=<gini = 0.0<br/>samples = 1<br/>value = [0, 0, 1, 0, 0, 0, 0, 0, 0, 0, 0, 0, 0, 0<br/>0, 0, 0, 0, 0, 0]<br/>class = SMALLTEXT_GREEDYCORESET>, fillcolor="#e2e539"] ;
23 -> 24 ;
25 [label=<gini = 0.0<br/>samples = 1<br/>value = [0, 0, 0, 0, 0, 0, 1, 0, 0, 0, 0, 0, 0, 0<br/>0, 0, 0, 0, 0, 0]<br/>class = LIBACT_DWUS>, fillcolor="#39e55e"] ;
23 -> 25 ;
26 [label=<gini = 0.0<br/>samples = 1<br/>value = [0, 0, 0, 0, 0, 0, 0, 1, 0, 0, 0, 0, 0, 0<br/>0, 0, 0, 0, 0, 0]<br/>class = LIBACT_QUIRE>, fillcolor="#39e592"] ;
20 -> 26 ;
27 [label=<variance mean &le; 0.154<br/>gini = 0.625<br/>samples = 4<br/>value = [0, 0, 0, 0, 0, 0, 0, 0, 0, 0, 0, 0, 0, 0<br/>0, 1, 0, 1, 2, 0]<br/>class = SMALLTEXT_GREEDYCORESET>, fillcolor="#f6bdc7"] ;
1 -> 27 ;
28 [label=<percentile &le; 0.721<br/>gini = 0.5<br/>samples = 2<br/>value = [0, 0, 0, 0, 0, 0, 0, 0, 0, 0, 0, 0, 0, 0<br/>0, 1, 0, 1, 0, 0]<br/>class = LIBACT_QUIRE>, fillcolor="#ffffff"] ;
27 -> 28 ;
29 [label=<gini = 0.0<br/>samples = 1<br/>value = [0, 0, 0, 0, 0, 0, 0, 0, 0, 0, 0, 0, 0, 0<br/>0, 0, 0, 1, 0, 0]<br/>class = PLAYGROUND_HIERARCHICAL_CLUSTER>, fillcolor="#e5398c"] ;
28 -> 29 ;
30 [label=<gini = 0.0<br/>samples = 1<br/>value = [0, 0, 0, 0, 0, 0, 0, 0, 0, 0, 0, 0, 0, 0<br/>0, 1, 0, 0, 0, 0]<br/>class = LIBACT_QUIRE>, fillcolor="#d739e5"] ;
28 -> 30 ;
31 [label=<gini = 0.0<br/>samples = 2<br/>value = [0, 0, 0, 0, 0, 0, 0, 0, 0, 0, 0, 0, 0, 0<br/>0, 0, 0, 0, 2, 0]<br/>class = SMALLTEXT_GREEDYCORESET>, fillcolor="#e53958"] ;
27 -> 31 ;
32 [label=<number of examples &le; 2.797<br/>gini = 0.803<br/>samples = 19<br/>value = [1, 0, 0, 0, 7, 0, 0, 0, 0, 1, 1, 1, 3, 0<br/>2, 0, 0, 2, 0, 1]<br/>class = PLAYGROUND_UNIFORM>, fillcolor="#def8ce"] ;
0 -> 32 [labeldistance=2.5, labelangle=-45, headlabel="False"] ;
33 [label=<column cosine similarity mean &le; 0.15<br/>gini = 0.812<br/>samples = 8<br/>value = [0, 0, 0, 0, 0, 0, 0, 0, 0, 1, 1, 1, 2, 0<br/>2, 0, 0, 1, 0, 0]<br/>class = SKACTIVEML_DWUS>, fillcolor="#ffffff"] ;
32 -> 33 ;
34 [label=<gini = 0.0<br/>samples = 2<br/>value = [0, 0, 0, 0, 0, 0, 0, 0, 0, 0, 0, 0, 2, 0<br/>0, 0, 0, 0, 0, 0]<br/>class = SKACTIVEML_DWUS>, fillcolor="#3c39e5"] ;
33 -> 34 ;
35 [label=<number of negative covariance &le; 92.574<br/>gini = 0.778<br/>samples = 6<br/>value = [0, 0, 0, 0, 0, 0, 0, 0, 0, 1, 1, 1, 0, 0<br/>2, 0, 0, 1, 0, 0]<br/>class = SKACTIVEML_DWUS>, fillcolor="#edd7fa"] ;
33 -> 35 ;
36 [label=<column cosine similarity mean &le; 0.178<br/>gini = 0.75<br/>samples = 4<br/>value = [0, 0, 0, 0, 0, 0, 0, 0, 0, 1, 1, 1, 0, 0<br/>0, 0, 0, 1, 0, 0]<br/>class = LIBACT_QUIRE>, fillcolor="#ffffff"] ;
35 -> 36 ;
37 [label=<gini = 0.0<br/>samples = 1<br/>value = [0, 0, 0, 0, 0, 0, 0, 0, 0, 0, 1, 0, 0, 0<br/>0, 0, 0, 0, 0, 0]<br/>class = ALIPY_GRAPH_DENSITY>, fillcolor="#399de5"] ;
36 -> 37 ;
38 [label=<number of features &le; 1.034<br/>gini = 0.667<br/>samples = 3<br/>value = [0, 0, 0, 0, 0, 0, 0, 0, 0, 1, 0, 1, 0, 0<br/>0, 0, 0, 1, 0, 0]<br/>class = LIBACT_QUIRE>, fillcolor="#ffffff"] ;
36 -> 38 ;
39 [label=<gini = 0.0<br/>samples = 1<br/>value = [0, 0, 0, 0, 0, 0, 0, 0, 0, 0, 0, 0, 0, 0<br/>0, 0, 0, 1, 0, 0]<br/>class = PLAYGROUND_HIERARCHICAL_CLUSTER>, fillcolor="#e5398c"] ;
38 -> 39 ;
40 [label=<skewness mean &le; 0.36<br/>gini = 0.5<br/>samples = 2<br/>value = [0, 0, 0, 0, 0, 0, 0, 0, 0, 1, 0, 1, 0, 0<br/>0, 0, 0, 0, 0, 0]<br/>class = LIBACT_QUIRE>, fillcolor="#ffffff"] ;
38 -> 40 ;
41 [label=<gini = 0.0<br/>samples = 1<br/>value = [0, 0, 0, 0, 0, 0, 0, 0, 0, 0, 0, 1, 0, 0<br/>0, 0, 0, 0, 0, 0]<br/>class = SMALLTEXT_EMBEDDINGKMEANS>, fillcolor="#396ae5"] ;
40 -> 41 ;
42 [label=<gini = 0.0<br/>samples = 1<br/>value = [0, 0, 0, 0, 0, 0, 0, 0, 0, 1, 0, 0, 0, 0<br/>0, 0, 0, 0, 0, 0]<br/>class = LIBACT_QUIRE>, fillcolor="#39d1e5"] ;
40 -> 42 ;
43 [label=<gini = 0.0<br/>samples = 2<br/>value = [0, 0, 0, 0, 0, 0, 0, 0, 0, 0, 0, 0, 0, 0<br/>2, 0, 0, 0, 0, 0]<br/>class = SKACTIVEML_DWUS>, fillcolor="#a339e5"] ;
35 -> 43 ;
44 [label=<quantile mean &le; 0.047<br/>gini = 0.562<br/>samples = 11<br/>value = [1, 0, 0, 0, 7, 0, 0, 0, 0, 0, 0, 0, 1, 0<br/>0, 0, 0, 1, 0, 1]<br/>class = PLAYGROUND_UNIFORM>, fillcolor="#b0ef88"] ;
32 -> 44 ;
45 [label=<gini = 0.0<br/>samples = 6<br/>value = [0, 0, 0, 0, 6, 0, 0, 0, 0, 0, 0, 0, 0, 0<br/>0, 0, 0, 0, 0, 0]<br/>class = PLAYGROUND_UNIFORM>, fillcolor="#7be539"] ;
44 -> 45 ;
46 [label=<quantile mean &le; 0.063<br/>gini = 0.8<br/>samples = 5<br/>value = [1, 0, 0, 0, 1, 0, 0, 0, 0, 0, 0, 0, 1, 0<br/>0, 0, 0, 1, 0, 1]<br/>class = ALIPY_QBC>, fillcolor="#ffffff"] ;
44 -> 46 ;
47 [label=<gini = 0.0<br/>samples = 1<br/>value = [0, 0, 0, 0, 0, 0, 0, 0, 0, 0, 0, 0, 0, 0<br/>0, 0, 0, 1, 0, 0]<br/>class = PLAYGROUND_HIERARCHICAL_CLUSTER>, fillcolor="#e5398c"] ;
46 -> 47 ;
48 [label=<examples feature_ratio &le; 0.01<br/>gini = 0.75<br/>samples = 4<br/>value = [1, 0, 0, 0, 1, 0, 0, 0, 0, 0, 0, 0, 1, 0<br/>0, 0, 0, 0, 0, 1]<br/>class = ALIPY_QBC>, fillcolor="#ffffff"] ;
46 -> 48 ;
49 [label=<gini = 0.0<br/>samples = 1<br/>value = [0, 0, 0, 0, 0, 0, 0, 0, 0, 0, 0, 0, 1, 0<br/>0, 0, 0, 0, 0, 0]<br/>class = SKACTIVEML_DWUS>, fillcolor="#3c39e5"] ;
48 -> 49 ;
50 [label=<coefficient variation mean &le; 0.398<br/>gini = 0.667<br/>samples = 3<br/>value = [1, 0, 0, 0, 1, 0, 0, 0, 0, 0, 0, 0, 0, 0<br/>0, 0, 0, 0, 0, 1]<br/>class = ALIPY_QBC>, fillcolor="#ffffff"] ;
48 -> 50 ;
51 [label=<gini = 0.0<br/>samples = 1<br/>value = [0, 0, 0, 0, 0, 0, 0, 0, 0, 0, 0, 0, 0, 0<br/>0, 0, 0, 0, 0, 1]<br/>class = LIBACT_DWUS>, fillcolor="#e54d39"] ;
50 -> 51 ;
52 [label=<variance mean &le; 0.343<br/>gini = 0.5<br/>samples = 2<br/>value = [1, 0, 0, 0, 1, 0, 0, 0, 0, 0, 0, 0, 0, 0<br/>0, 0, 0, 0, 0, 0]<br/>class = ALIPY_QBC>, fillcolor="#ffffff"] ;
50 -> 52 ;
53 [label=<gini = 0.0<br/>samples = 1<br/>value = [0, 0, 0, 0, 1, 0, 0, 0, 0, 0, 0, 0, 0, 0<br/>0, 0, 0, 0, 0, 0]<br/>class = PLAYGROUND_UNIFORM>, fillcolor="#7be539"] ;
52 -> 53 ;
54 [label=<gini = 0.0<br/>samples = 1<br/>value = [1, 0, 0, 0, 0, 0, 0, 0, 0, 0, 0, 0, 0, 0<br/>0, 0, 0, 0, 0, 0]<br/>class = ALIPY_QBC>, fillcolor="#e58139"] ;
52 -> 54 ;
}
